<?xml version="1.0"?>
<opencv_storage>
<cascade>
  <stageType>BOOST</stageType>
  <featureType>LBP</featureType>
  <height>24</height>
  <width>24</width>
  <stageParams>
    <boostType>GAB</boostType>
    <minHitRate>9.9500000476837158e-001</minHitRate>
    <maxFalseAlarm>5.0000000000000000e-001</maxFalseAlarm>
    <weightTrimRate>9.4999999999999996e-001</weightTrimRate>
    <maxDepth>1</maxDepth>
    <maxWeakCount>100</maxWeakCount></stageParams>
  <featureParams>
    <maxCatCount>256</maxCatCount>
    <featSize>1</featSize></featureParams>
  <stageNum>16</stageNum>
  <stages>
    <!-- stage 0 -->
    <_>
      <maxWeakCount>3</maxWeakCount>
      <stageThreshold>-1.2592071294784546e+000</stageThreshold>
      <weakClassifiers>
        <_>
          <internalNodes>
            0 -1 35 -35651585 -6446121 -1203533125 -67425637 -611861569
            -1151608661 -276067653 -1342231617</internalNodes>
          <leafValues>
            -8.8319325447082520e-001 8.2738363742828369e-001</leafValues></_>
        <_>
          <internalNodes>
            0 -1 15 -255787072 -119680577 -905838627 -34218021
            -801052943 -67400705 -77857793 -1</internalNodes>
          <leafValues>
            -9.0173530578613281e-001 6.7848730087280273e-001</leafValues></_>
        <_>
          <internalNodes>
            0 -1 77 -655426936 -800000036 -539278895 -42609673
            -718421552 -253299835 -44303361 -1</internalNodes>
          <leafValues>
            -8.7179243564605713e-001 5.2572154998779297e-001</leafValues></_></weakClassifiers></_>
    <!-- stage 1 -->
    <_>
      <maxWeakCount>3</maxWeakCount>
      <stageThreshold>-1.1167315244674683e+000</stageThreshold>
      <weakClassifiers>
        <_>
          <internalNodes>
            0 -1 50 -1 -2098689 -67263813 -30037 -6295617 -147713
            -2121029 -21825</internalNodes>
          <leafValues>
            -8.1641107797622681e-001 7.2985559701919556e-001</leafValues></_>
        <_>
          <internalNodes>
            0 -1 46 -263130896 -138806277 271790967 -136315429
            -176685057 -69207106 -1049601 -2085</internalNodes>
          <leafValues>
            -8.0483394861221313e-001 3.9970451593399048e-001</leafValues></_>
        <_>
          <internalNodes>
            0 -1 3 -134217729 -1919965397 -677935249 51315714 -6297601
            -103125685 -8193 1330638767</internalNodes>
          <leafValues>
            -6.9047576189041138e-001 5.0451356172561646e-001</leafValues></_></weakClassifiers></_>
    <!-- stage 2 -->
    <_>
      <maxWeakCount>5</maxWeakCount>
      <stageThreshold>-1.1132138967514038e+000</stageThreshold>
      <weakClassifiers>
        <_>
          <internalNodes>
            0 -1 42 -2621441 -33556481 -34230021 -35673413 -67764225 -75
            -67261765 -21845</internalNodes>
          <leafValues>
            -7.8911852836608887e-001 6.1362618207931519e-001</leafValues></_>
        <_>
          <internalNodes>
            0 -1 94 -2097389 -671089217 -568330993 -205532161 -149179567
            2071985939 -265385 -67109889</internalNodes>
          <leafValues>
            -6.4202171564102173e-001 5.4765349626541138e-001</leafValues></_>
        <_>
          <internalNodes>
            0 -1 24 -18940958 -20513153 1452071924 -89138265 -587140864
            -88612879 -951912599 -538968065</internalNodes>
          <leafValues>
            -7.5735354423522949e-001 4.3953496217727661e-001</leafValues></_>
        <_>
          <internalNodes>
            0 -1 60 -2228225 2147481055 -2229857 -140913 2141189567
            1877996127 731844415 805302255</internalNodes>
          <leafValues>
            -7.0980471372604370e-001 4.6184924244880676e-001</leafValues></_>
        <_>
          <internalNodes>
            0 -1 97 -1029 -269489217 -88379686 -2010251377 -541065230
            -1347420482 -1048588128 -526123165</internalNodes>
          <leafValues>
            -5.4009205102920532e-001 6.1343061923980713e-001</leafValues></_></weakClassifiers></_>
    <!-- stage 3 -->
    <_>
      <maxWeakCount>5</maxWeakCount>
      <stageThreshold>-9.7022974491119385e-001</stageThreshold>
      <weakClassifiers>
        <_>
          <internalNodes>
            0 -1 76 -1 -2101249 -8225 -1 -1 -5 -1025 -269490429</internalNodes>
          <leafValues>
            -6.5316838026046753e-001 6.7785233259201050e-001</leafValues></_>
        <_>
          <internalNodes>
            0 -1 37 -436228161 -134281411 -1389024333 -154697
            -1981567041 -6836391 -1342592069 -17409</internalNodes>
          <leafValues>
            -6.2859624624252319e-001 5.2627801895141602e-001</leafValues></_>
        <_>
          <internalNodes>
            0 -1 5 -9441281 -286851409 -8388865 -319881217 -278528001
            1635188703 -8388609 -1</internalNodes>
          <leafValues>
            -5.3292465209960938e-001 5.7536274194717407e-001</leafValues></_>
        <_>
          <internalNodes>
            0 -1 16 -1378322 -221585414 -2559822 -134284726 -145376394
            -212804615 2146884082 -18351753</internalNodes>
          <leafValues>
            -6.8085128068923950e-001 4.0575635433197021e-001</leafValues></_>
        <_>
          <internalNodes>
            0 -1 98 -33564749 1178794546 -779751408 1087468992
            -544227592 -963137118 -786214832 -772288319</internalNodes>
          <leafValues>
            -6.3400995731353760e-001 4.3870317935943604e-001</leafValues></_></weakClassifiers></_>
    <!-- stage 4 -->
    <_>
      <maxWeakCount>6</maxWeakCount>
      <stageThreshold>-1.5285942554473877e+000</stageThreshold>
      <weakClassifiers>
        <_>
          <internalNodes>
            0 -1 49 -539099137 -570950185 -571102465 -33717537 -41025601
            -51447835 -152917 -21825</internalNodes>
          <leafValues>
            -7.5594437122344971e-001 3.9642146229743958e-001</leafValues></_>
        <_>
          <internalNodes>
            0 -1 64 -16781329 -145 -33558529 -2101257 -17305617 -18
            -20975873 -353374717</internalNodes>
          <leafValues>
            -4.7226208448410034e-001 6.5416920185089111e-001</leafValues></_>
        <_>
          <internalNodes>
            0 -1 82 -590546996 -724238344 -537136643 -536874001
            -570562172 -645158437 -1074422833 -1048609</internalNodes>
          <leafValues>
            -7.4611824750900269e-001 3.7691783905029297e-001</leafValues></_>
        <_>
          <internalNodes>
            0 -1 8 -17043713 -67137281 537436406 539670783 1448472663
            -2654729 -523869953 -453771265</internalNodes>
          <leafValues>
            -5.7151204347610474e-001 4.6443122625350952e-001</leafValues></_>
        <_>
          <internalNodes>
            0 -1 107 -163 -648069185 -50434343 -33816581 -573090816
            1548967260 -698362624 -8388641</internalNodes>
          <leafValues>
            -4.8693770170211792e-001 5.4397815465927124e-001</leafValues></_>
        <_>
          <internalNodes>
            0 -1 10 1979564031 -36182571 -916587079 803671087 998309819
            -4589063 2143944687 2147450747</internalNodes>
          <leafValues>
            -6.3292759656906128e-001 3.8114404678344727e-001</leafValues></_></weakClassifiers></_>
    <!-- stage 5 -->
    <_>
      <maxWeakCount>6</maxWeakCount>
      <stageThreshold>-1.3450579643249512e+000</stageThreshold>
      <weakClassifiers>
        <_>
          <internalNodes>
            0 -1 71 -1 -67111969 -481296385 -2102289 -67109889 -1053750
            -71308289 -286265849</internalNodes>
          <leafValues>
            -6.4289879798889160e-001 5.1259583234786987e-001</leafValues></_>
        <_>
          <internalNodes>
            0 -1 21 -269498369 -285279233 -1890713745 -295754881
            -337642497 -1008012037 -81142817 -1029</internalNodes>
          <leafValues>
            -5.4446452856063843e-001 4.7533810138702393e-001</leafValues></_>
        <_>
          <internalNodes>
            0 -1 28 805244691 2147072217 -1344458849 -926209 1064910655
            2139119296 -1077888097 -590118</internalNodes>
          <leafValues>
            -6.7042261362075806e-001 3.7484481930732727e-001</leafValues></_>
        <_>
          <internalNodes>
            0 -1 31 -540016689 -276307234 1800920415 -403702055
            -87307445 -1899225786 -872460465 1330597711</internalNodes>
          <leafValues>
            -5.2473711967468262e-001 4.7921824455261230e-001</leafValues></_>
        <_>
          <internalNodes>
            0 -1 57 -543167601 -1141137265 -707682262 -641224031
            -1462865 -1610876678 -539252033 -2098968</internalNodes>
          <leafValues>
            -4.9458044767379761e-001 5.0283622741699219e-001</leafValues></_>
        <_>
          <internalNodes>
            0 -1 111 -538970117 -274726913 1409281532 -83886181
            -673712541 -856195085 -721981152 -254281869</internalNodes>
          <leafValues>
            -4.9171248078346252e-001 5.3124719858169556e-001</leafValues></_></weakClassifiers></_>
    <!-- stage 6 -->
    <_>
      <maxWeakCount>7</maxWeakCount>
      <stageThreshold>-1.3287465572357178e+000</stageThreshold>
      <weakClassifiers>
        <_>
          <internalNodes>
            0 -1 95 -262145 -12584961 -705955137 -1025 -6304308
            -559158277 -319821620 -16778241</internalNodes>
          <leafValues>
            -6.4390146732330322e-001 4.2525252699851990e-001</leafValues></_>
        <_>
          <internalNodes>
            0 -1 18 -136314881 -75499538 -683227442 -501037566 -2884769
            -8654249 -216036001 -28846269</internalNodes>
          <leafValues>
            -5.7365268468856812e-001 4.0717244148254395e-001</leafValues></_>
        <_>
          <internalNodes>
            0 -1 34 -35651617 -71704275 -581051425 1000271627 -103945259
            -36840763 -168820801 1060859823</internalNodes>
          <leafValues>
            -7.1351420879364014e-001 3.2672742009162903e-001</leafValues></_>
        <_>
          <internalNodes>
            0 -1 96 -1029 -337906713 -204480770 -1158676994 2063072734
            -306202657 -239099904 -487064646</internalNodes>
          <leafValues>
            -5.5380332469940186e-001 4.0155854821205139e-001</leafValues></_>
        <_>
          <internalNodes>
            0 -1 41 -1026298121 -17365153 -422260738 -501027326
            -928855169 -679480517 -208928772 -260908190</internalNodes>
          <leafValues>
            -5.4608625173568726e-001 3.9086729288101196e-001</leafValues></_>
        <_>
          <internalNodes>
            0 -1 68 1207903531 2111172063 1808089459 -6544063 83378927
            2141350540 -411016225 -1319288</internalNodes>
          <leafValues>
            -6.4960449934005737e-001 3.5178548097610474e-001</leafValues></_>
        <_>
          <internalNodes>
            0 -1 67 -16777793 2102522245 -1400836576 233168183 145813108
            1244203523 675842816 133148527</internalNodes>
          <leafValues>
            -5.1247477531433105e-001 4.1562885046005249e-001</leafValues></_></weakClassifiers></_>
    <!-- stage 7 -->
    <_>
      <maxWeakCount>8</maxWeakCount>
      <stageThreshold>-1.1825404167175293e+000</stageThreshold>
      <weakClassifiers>
        <_>
          <internalNodes>
            0 -1 54 -538968065 -547356977 -36315526 -547362102 -6815765
            -107487361 -1049942 -201334102</internalNodes>
          <leafValues>
            -6.7177915573120117e-001 2.8767123818397522e-001</leafValues></_>
        <_>
          <internalNodes>
            0 -1 109 -193 -524289 -1157379 -9437409 -1073895926
            1261420075 -1364750834 -81</internalNodes>
          <leafValues>
            -4.2086184024810791e-001 5.6253570318222046e-001</leafValues></_>
        <_>
          <internalNodes>
            0 -1 6 -1 -33558867 -86420 -35494238 -2049 -102409 -59393
            -15239405</internalNodes>
          <leafValues>
            -4.4581598043441772e-001 4.6501046419143677e-001</leafValues></_>
        <_>
          <internalNodes>
            0 -1 92 -15 -1012926127 -606603787 -817 -543426133
            -1961906267 1167848772 -991955744</internalNodes>
          <leafValues>
            -4.5982301235198975e-001 4.5699515938758850e-001</leafValues></_>
        <_>
          <internalNodes>
            0 -1 76 -673187265 -1617 -214515265 -67110977 -1049089
            -73411782 -1619004353 -890280671</internalNodes>
          <leafValues>
            -4.8793971538543701e-001 4.3162482976913452e-001</leafValues></_>
        <_>
          <internalNodes>
            0 -1 4 -275779661 -1028755734 -1345454111 -395386990
            -687872145 1214674798 -1329561 -605030913</internalNodes>
          <leafValues>
            -4.3747267127037048e-001 4.7853258252143860e-001</leafValues></_>
        <_>
          <internalNodes>
            0 -1 63 -270534411 -168951875 -1880117481 -1892883409
            -1153443973 -1124336211 -1346904277 724563771</internalNodes>
          <leafValues>
            -4.1713792085647583e-001 4.9988883733749390e-001</leafValues></_>
        <_>
          <internalNodes>
            0 -1 83 44499695 2145368927 -258358794 -107242229 2004566079
            -544315251 -244581909 -7412037</internalNodes>
          <leafValues>
            -5.8556854724884033e-001 3.7147891521453857e-001</leafValues></_></weakClassifiers></_>
    <!-- stage 8 -->
    <_>
      <maxWeakCount>7</maxWeakCount>
      <stageThreshold>-1.2165770530700684e+000</stageThreshold>
      <weakClassifiers>
        <_>
          <internalNodes>
            0 -1 12 -33556481 -68237826 -673196549 -1121438 -605037569
            -67643201 -97518593 -9</internalNodes>
          <leafValues>
            -6.2112563848495483e-001 3.2527792453765869e-001</leafValues></_>
        <_>
          <internalNodes>
            0 -1 93 -41711 -12620161 -1480601703 530567679 -36809967
            -1154749637 -72122603 -75497541</internalNodes>
          <leafValues>
            -5.4582548141479492e-001 3.7863311171531677e-001</leafValues></_>
        <_>
          <internalNodes>
            0 -1 87 -724504834 1410625686 2100555991 2102654071
            -798434834 -337313330 -52442437 -67114005</internalNodes>
          <leafValues>
            -6.4121693372726440e-001 3.2376286387443542e-001</leafValues></_>
        <_>
          <internalNodes>
            0 -1 22 -33554734 1886437586 1342887583 -575145729 856749844
            1073801280 -1124013139 -134746113</internalNodes>
          <leafValues>
            -5.7410520315170288e-001 3.5993167757987976e-001</leafValues></_>
        <_>
          <internalNodes>
            0 -1 74 -16777681 -908799543 -891289942 2108544343 288973695
            1535767018 -11246913 -68158469</internalNodes>
          <leafValues>
            -5.2819186449050903e-001 3.8278010487556458e-001</leafValues></_>
        <_>
          <internalNodes>
            0 -1 91 -748686928 -318618496 -1064513264 -717115088
            -505685080 -206585719 -1867545456 -604250671</internalNodes>
          <leafValues>
            -5.2676743268966675e-001 3.6910745501518250e-001</leafValues></_>
        <_>
          <internalNodes>
            0 -1 108 -874522961 1165474655 1355505407 2051792769
            -286326772 1137180039 251448972 -286523489</internalNodes>
          <leafValues>
            -4.4167432188987732e-001 4.1380867362022400e-001</leafValues></_></weakClassifiers></_>
    <!-- stage 9 -->
    <_>
      <maxWeakCount>7</maxWeakCount>
      <stageThreshold>-1.3372167348861694e+000</stageThreshold>
      <weakClassifiers>
        <_>
          <internalNodes>
            0 -1 44 -197003779 -587082923 -44780615 -38425191 -788070913
            -104794659 -303977541 -1342328931</internalNodes>
          <leafValues>
            -7.4584716558456421e-001 9.5507286489009857e-002</leafValues></_>
        <_>
          <internalNodes>
            0 -1 25 -220215553 -537411841 -1030065986 -218696001
            1087889507 -270578070 1618141439 -67109889</internalNodes>
          <leafValues>
            -4.7005498409271240e-001 4.3913930654525757e-001</leafValues></_>
        <_>
          <internalNodes>
            0 -1 105 -12583120 -1306271777 -53617291 -6301731
            -1615090977 -609703477 -357834311 -6300689</internalNodes>
          <leafValues>
            -4.5107218623161316e-001 4.6094188094139099e-001</leafValues></_>
        <_>
          <internalNodes>
            0 -1 11 1978922487 -18947022 1856036864 -520429360
            -144705545 -290011359 -1074072256 -17303561</internalNodes>
          <leafValues>
            -5.0074273347854614e-001 3.9263811707496643e-001</leafValues></_>
        <_>
          <internalNodes>
            0 -1 38 20149505 20166962 -22552579 2010890462 1476130991
            -1052468 2076752075 -73795334</internalNodes>
          <leafValues>
            -6.5650421380996704e-001 3.0974197387695313e-001</leafValues></_>
        <_>
          <internalNodes>
            0 -1 73 -269488638 43506427 1113972454 1787808450 1941381207
            -1190541139 -170007806 -5510961</internalNodes>
          <leafValues>
            -5.5152827501296997e-001 3.3850097656250000e-001</leafValues></_>
        <_>
          <internalNodes>
            0 -1 75 186136956 -107155204 1493244413 -540528545 -92749896
            -1111952760 -1415795203 196611100</internalNodes>
          <leafValues>
            -6.5407150983810425e-001 2.7256074547767639e-001</leafValues></_></weakClassifiers></_>
    <!-- stage 10 -->
    <_>
      <maxWeakCount>8</maxWeakCount>
      <stageThreshold>-1.6700876951217651e+000</stageThreshold>
      <weakClassifiers>
        <_>
          <internalNodes>
            0 -1 103 -524323 -41977985 -138551841 -176169073 -103040512
            -33694855 -1175459688 -33</internalNodes>
          <leafValues>
            -6.4621585607528687e-001 2.0462703704833984e-001</leafValues></_>
        <_>
          <internalNodes>
            0 -1 1 -1053717 -873560146 -241698817 -277943542 -72361729
            1998022786 -69469185 -1048637</internalNodes>
          <leafValues>
            -4.6066403388977051e-001 3.9910480380058289e-001</leafValues></_>
        <_>
          <internalNodes>
            0 -1 102 -357630764 -1945568552 -1596987909 -896863564
            -604248665 -1109673025 -203184913 -5248001</internalNodes>
          <leafValues>
            -6.9963091611862183e-001 2.6554527878761292e-001</leafValues></_>
        <_>
          <internalNodes>
            0 -1 32 -959517958 -50950497 -497382693 -221001473
            -764870458 -966032757 -656479009 -1</internalNodes>
          <leafValues>
            -4.2558833956718445e-001 4.5375731587409973e-001</leafValues></_>
        <_>
          <internalNodes>
            0 -1 59 -193598481 -570453521 -800607777 2142107631
            -270405377 -8659457 -243400753 -2131827130</internalNodes>
          <leafValues>
            -5.1376330852508545e-001 3.7649452686309814e-001</leafValues></_>
        <_>
          <internalNodes>
            0 -1 106 -67372133 -961611289 1412411409 -1045245885
            -738210821 -1911774453 1439649861 -704645691</internalNodes>
          <leafValues>
            -4.6705564856529236e-001 4.1653403639793396e-001</leafValues></_>
        <_>
          <internalNodes>
            0 -1 36 -218443568 -2171753 552861779 -727920417 1602944953
            -552068984 -508821593 -13641269</internalNodes>
          <leafValues>
            -6.2532597780227661e-001 2.7936404943466187e-001</leafValues></_>
        <_>
          <internalNodes>
            0 -1 33 -1359287533 -2039577380 -415016965 168529275
            1929667895 -1392795421 2125167391 -269484289</internalNodes>
          <leafValues>
            -5.4704648256301880e-001 3.1390199065208435e-001</leafValues></_></weakClassifiers></_>
    <!-- stage 11 -->
    <_>
      <maxWeakCount>9</maxWeakCount>
      <stageThreshold>-1.8506793975830078e+000</stageThreshold>
      <weakClassifiers>
        <_>
          <internalNodes>
            0 -1 9 -13111297 -359158017 -218040575 -276887546 -14287889
            2094746119 -83101185 -2371585</internalNodes>
          <leafValues>
            -6.0542231798171997e-001 2.4334251880645752e-001</leafValues></_>
        <_>
          <internalNodes>
            0 -1 84 -1189038220 -1726972624 -938446347 -48941571
            -96929367 -1120347687 -1106723137 -1145307393</internalNodes>
          <leafValues>
            -4.4361495971679688e-001 4.1787302494049072e-001</leafValues></_>
        <_>
          <internalNodes>
            0 -1 48 -267402258 -83764317 1500536318 -1378354 -910689297
            -100926481 -209723956 -544551480</internalNodes>
          <leafValues>
            -6.3776880502700806e-001 2.8180465102195740e-001</leafValues></_>
        <_>
          <internalNodes>
            0 -1 99 -134221054 50583840 1327747184 -706612816 -271852869
            -4987257 -1578372367 -542115909</internalNodes>
          <leafValues>
            -4.4739964604377747e-001 3.7756812572479248e-001</leafValues></_>
        <_>
          <internalNodes>
            0 -1 40 -220544257 -69743617 269802171 1883412959 1444186734
            -96266037 -521478405 -1174217985</internalNodes>
          <leafValues>
            -3.8435626029968262e-001 4.3846395611763000e-001</leafValues></_>
        <_>
          <internalNodes>
            0 -1 81 -1613563397 -52461410 -1224355425 -144715367
            -1526155525 -1409677146 520220671 -288341888</internalNodes>
          <leafValues>
            -5.0055670738220215e-001 3.4762033820152283e-001</leafValues></_>
        <_>
          <internalNodes>
            0 -1 66 -505944789 -991990403 -493393969 -2072132369
            -10657018 -358702754 -22885373 -352326065</internalNodes>
          <leafValues>
            -4.5483562350273132e-001 3.7565338611602783e-001</leafValues></_>
        <_>
          <internalNodes>
            0 -1 101 -25168123 -553655075 -753019921 -378581001
            -1146236656 1476104245 -718618861 -1686395269</internalNodes>
          <leafValues>
            -4.9566161632537842e-001 3.5454967617988586e-001</leafValues></_>
        <_>
          <internalNodes>
            0 -1 39 -141296229 -742931253 1163544091 1114625203
            -2016507376 1224594170 1557741636 1559707743</internalNodes>
          <leafValues>
            -4.9261388182640076e-001 3.3704155683517456e-001</leafValues></_></weakClassifiers></_>
    <!-- stage 12 -->
    <_>
      <maxWeakCount>10</maxWeakCount>
      <stageThreshold>-1.5765193700790405e+000</stageThreshold>
      <weakClassifiers>
        <_>
          <internalNodes>
            0 -1 58 -33751044 -96290 -80160523 -11272559 -396324616
            -1919909480 -1472135692 -68681761</internalNodes>
          <leafValues>
            -6.4741218090057373e-001 1.6219282150268555e-001</leafValues></_>
        <_>
          <internalNodes>
            0 -1 19 -35653121 -2100737 -971454722 -1153310 869497855
            -1623216067 1906508279 -11014057</internalNodes>
          <leafValues>
            -4.6517720818519592e-001 3.8119947910308838e-001</leafValues></_>
        <_>
          <internalNodes>
            0 -1 104 -606209605 -258352759 -2042325825 -35724905
            -39871209 -868101921 497007402 -1342177349</internalNodes>
          <leafValues>
            -4.4205853343009949e-001 3.9461907744407654e-001</leafValues></_>
        <_>
          <internalNodes>
            0 -1 23 -419483937 -605565701 -556266689 2008485502
            1528515451 -364752982 -71008481 -35841</internalNodes>
          <leafValues>
            -4.2020052671432495e-001 3.9993587136268616e-001</leafValues></_>
        <_>
          <internalNodes>
            0 -1 27 -344981505 -285282562 -268521989 1325263615
            -1393557505 -1879048194 -1753436681 -805314625</internalNodes>
          <leafValues>
            -3.9306512475013733e-001 4.3314242362976074e-001</leafValues></_>
        <_>
          <internalNodes>
            0 -1 79 -239603328 537650944 -1781728847 -1252404957
            -1692802528 -1481639423 -477169921 -1951401265</internalNodes>
          <leafValues>
            -4.8632881045341492e-001 3.2670444250106812e-001</leafValues></_>
        <_>
          <internalNodes>
            0 -1 43 1371779581 1368645975 1157715958 938342798
            -1315922965 -201747781 -115097400 -141966196</internalNodes>
          <leafValues>
            -5.5063873529434204e-001 2.9641705751419067e-001</leafValues></_>
        <_>
          <internalNodes>
            0 -1 112 -2153 -292826445 1392767451 1817697498 -604243388
            -90220229 -352724400 -87100560</internalNodes>
          <leafValues>
            -4.9781027436256409e-001 3.2567238807678223e-001</leafValues></_>
        <_>
          <internalNodes>
            0 -1 14 -353702154 -153104675 2094205236 -137426233
            -582850765 -1349435094 -188584651 -547401793</internalNodes>
          <leafValues>
            -4.3571752309799194e-001 3.6879578232765198e-001</leafValues></_>
        <_>
          <internalNodes>
            0 -1 69 -2144335216 -571339371 554460281 2141142143
            723161017 -1141270263 679033789 781844538</internalNodes>
          <leafValues>
            -5.1902341842651367e-001 2.9018405079841614e-001</leafValues></_></weakClassifiers></_>
    <!-- stage 13 -->
    <_>
      <maxWeakCount>10</maxWeakCount>
      <stageThreshold>-1.5507720708847046e+000</stageThreshold>
      <weakClassifiers>
        <_>
          <internalNodes>
            0 -1 26 -35128577 -68164897 -531965701 -1040000785 -75509121
            -14298833 -256709905 -146539521</internalNodes>
          <leafValues>
            -6.2434941530227661e-001 1.5113547444343567e-001</leafValues></_>
        <_>
          <internalNodes>
            0 -1 110 -576717917 -1148215845 -1918532177 -1398809441
            -1700790609 -1681079889 -1364611154 -1344282657</internalNodes>
          <leafValues>
            -4.1497072577476501e-001 3.9841383695602417e-001</leafValues></_>
        <_>
          <internalNodes>
            0 -1 86 -33 -33558561 -1217429713 -575668689 -8913131
            -12582978 -34603137 -67109381</internalNodes>
          <leafValues>
            -3.6201569437980652e-001 4.5502129197120667e-001</leafValues></_>
        <_>
          <internalNodes>
            0 -1 78 -288365841 1606164639 -1361121577 2069880197
            1177903215 -13678470 -435422209 -69603622</internalNodes>
          <leafValues>
            -3.9921876788139343e-001 3.9543193578720093e-001</leafValues></_>
        <_>
          <internalNodes>
            0 -1 45 1459746292 -773532208 -1857502096 -711493291
            1141150888 -839939408 -1333522275 -1209011461</internalNodes>
          <leafValues>
            -6.0047847032546997e-001 3.1427821516990662e-001</leafValues></_>
        <_>
          <internalNodes>
            0 -1 20 -859114038 -421002098 924291579 -274732945
            -1169741824 4884514 -72418465 1609535374</internalNodes>
          <leafValues>
            -5.6591916084289551e-001 2.8797763586044312e-001</leafValues></_>
        <_>
          <internalNodes>
            0 -1 17 -88080645 -789647018 -1032283110 -491332394
            -213544665 1898702992 -1303519341 -214482697</internalNodes>
          <leafValues>
            -5.0536191463470459e-001 3.2930544018745422e-001</leafValues></_>
        <_>
          <internalNodes>
            0 -1 61 -83902485 -387104512 -1372060160 9214560 -519376961
            -1466783605 1080208966 -352327530</internalNodes>
          <leafValues>
            -4.0857368707656860e-001 3.8762056827545166e-001</leafValues></_>
        <_>
          <internalNodes>
            0 -1 85 -686962139 571007443 -1434722479 -2236712 -527697455
            -1346396531 1168758000 -724569904</internalNodes>
          <leafValues>
            -4.8440811038017273e-001 3.3343103528022766e-001</leafValues></_>
        <_>
          <internalNodes>
            0 -1 47 -765279514 -154926573 -67047881 -2266933 1140850702
            -600030321 1614949343 -12630465</internalNodes>
          <leafValues>
            -4.2993119359016418e-001 3.5819271206855774e-001</leafValues></_></weakClassifiers></_>
    <!-- stage 14 -->
    <_>
      <maxWeakCount>10</maxWeakCount>
      <stageThreshold>-1.4034178256988525e+000</stageThreshold>
      <weakClassifiers>
        <_>
          <internalNodes>
            0 -1 53 -16778497 -8949153 -186724137 -229999745 -610286850
            -564400079 -87303233 -99942786</internalNodes>
          <leafValues>
            -6.0000002384185791e-001 1.9143356382846832e-001</leafValues></_>
        <_>
          <internalNodes>
            0 -1 70 -822678252 -234887553 -216280065 -3073 -679234625
            -358686405 -4113 -286577149</internalNodes>
          <leafValues>
            -4.7934931516647339e-001 3.6286941170692444e-001</leafValues></_>
        <_>
          <internalNodes>
            0 -1 30 -10487041 -6884617 -430522178 -18941186 1104866271
            -1351906385 1348591860 -134221569</internalNodes>
          <leafValues>
            -4.0667802095413208e-001 4.1199454665184021e-001</leafValues></_>
        <_>
          <internalNodes>
            0 -1 55 -2004597160 -867244 362081247 448322516 -2575716
            -71714116 -1078424068 -1158087716</internalNodes>
          <leafValues>
            -6.1609739065170288e-001 2.5887656211853027e-001</leafValues></_>
        <_>
          <internalNodes>
            0 -1 100 -1037 -960757762 1639112977 -986450574 -1153437797
            -807403537 1912041971 -135266305</internalNodes>
          <leafValues>
            -3.6344903707504272e-001 4.5731666684150696e-001</leafValues></_>
        <_>
          <internalNodes>
            0 -1 29 761081139 -853702639 -874727119 -1080952804
            -1358389121 -649000960 -1182729988 -117313327</internalNodes>
          <leafValues>
            -5.0417053699493408e-001 3.2860228419303894e-001</leafValues></_>
        <_>
          <internalNodes>
            0 -1 0 -358617425 13871242 -451818602 1306725512 -332679350
            1716134826 1386472423 -544216113</internalNodes>
          <leafValues>
            -4.0054315328598022e-001 4.1913950443267822e-001</leafValues></_>
        <_>
          <internalNodes>
            0 -1 88 -1035026241 -186716433 -1528656674 1213394943
            -252256034 -413474955 -246022417 -213647490</internalNodes>
          <leafValues>
            -3.7451630830764771e-001 4.3991783261299133e-001</leafValues></_>
        <_>
          <internalNodes>
            0 -1 113 -34603103 1217520259 119888144 223774382 21976064
            1092569630 1079984144 -193529649</internalNodes>
          <leafValues>
            -4.5879536867141724e-001 3.4835463762283325e-001</leafValues></_>
        <_>
          <internalNodes>
            0 -1 62 -552085844 -203434673 2131158618 -1426391878
            -82605142 -546570381 -476357061 190515723</internalNodes>
          <leafValues>
            -4.5504176616668701e-001 3.4529876708984375e-001</leafValues></_></weakClassifiers></_>
    <!-- stage 15 -->
    <_>
      <maxWeakCount>11</maxWeakCount>
      <stageThreshold>-1.1786133050918579e+000</stageThreshold>
      <weakClassifiers>
        <_>
          <internalNodes>
            0 -1 13 -155455745 -69345057 -238737499 -37025918 -66849809
            -70233636 -23494689 -43021</internalNodes>
          <leafValues>
            -5.7431042194366455e-001 1.9716311991214752e-001</leafValues></_>
        <_>
          <internalNodes>
            0 -1 89 -102768673 -704786433 1539759108 -649250879
            -16777329 -1178730497 -39846776 -643825713</internalNodes>
          <leafValues>
            -3.8613331317901611e-001 4.1157239675521851e-001</leafValues></_>
        <_>
          <internalNodes>
            0 -1 7 -131072417 2138805215 582071475 -532483331 1378450997
            -617463181 810809334 -260835394</internalNodes>
          <leafValues>
            -4.1953295469284058e-001 3.6564001441001892e-001</leafValues></_>
        <_>
          <internalNodes>
            0 -1 72 -920691473 -615024758 1100336605 -614641237
            -264523029 -342117721 -485114317 -321992960</internalNodes>
          <leafValues>
            -4.5926737785339355e-001 3.2343336939811707e-001</leafValues></_>
        <_>
          <internalNodes>
            0 -1 65 -564203858 1473500166 -1610334112 -641908670 98
            -561280354 675342887 -1084792097</internalNodes>
          <leafValues>
            -5.1216834783554077e-001 3.3323469758033752e-001</leafValues></_>
        <_>
          <internalNodes>
            0 -1 80 771946481 -170100868 -718631937 -648031078
            -1429083216 -67129154 -375201284 -1158881124</internalNodes>
          <leafValues>
            -4.4424617290496826e-001 3.4817820787429810e-001</leafValues></_>
        <_>
          <internalNodes>
            0 -1 90 -218123262 33593634 1397432752 867219282 -614157438
            -1051751015 -1836189454 -672466002</internalNodes>
          <leafValues>
            -5.4604119062423706e-001 2.8813755512237549e-001</leafValues></_>
        <_>
          <internalNodes>
            0 -1 52 -901330386 -537161809 -4556865 -1392853 1080296632
            -312144715 -572461141 -8692405</internalNodes>
          <leafValues>
            -3.5978823900222778e-001 4.4201093912124634e-001</leafValues></_>
        <_>
          <internalNodes>
            0 -1 2 -832573066 -119406398 285954462 1877610500 936091874
            2110914572 533694599 -135903801</internalNodes>
          <leafValues>
            -5.2017831802368164e-001 3.0950835347175598e-001</leafValues></_>
        <_>
          <internalNodes>
            0 -1 56 -241839467 -775942084 -754895525 -1860611753
            -1702567239 -557218428 -1371497221 -1206321989</internalNodes>
          <leafValues>
            -4.0566605329513550e-001 3.7115404009819031e-001</leafValues></_>
        <_>
          <internalNodes>
            0 -1 51 -581065585 1028986134 -179730015 827431185 155708813
            1619051664 -716678775 1003084697</internalNodes>
          <leafValues>
            -5.3039485216140747e-001 2.9250240325927734e-001</leafValues></_></weakClassifiers></_></stages>
  <features>
    <_>
      <rect>
        0 0 2 4</rect></_>
    <_>
      <rect>
        0 0 3 3</rect></_>
    <_>
      <rect>
        0 0 4 2</rect></_>
    <_>
      <rect>
        0 0 5 5</rect></_>
    <_>
      <rect>
        0 1 2 2</rect></_>
    <_>
      <rect>
        0 1 3 1</rect></_>
    <_>
      <rect>
        0 11 5 1</rect></_>
    <_>
      <rect>
        0 15 3 2</rect></_>
    <_>
      <rect>
        0 17 4 2</rect></_>
    <_>
      <rect>
        1 0 2 4</rect></_>
    <_>
      <rect>
        1 0 5 4</rect></_>
    <_>
      <rect>
        1 0 7 6</rect></_>
    <_>
      <rect>
        1 1 3 2</rect></_>
    <_>
      <rect>
        1 4 2 2</rect></_>
    <_>
      <rect>
        1 4 2 3</rect></_>
    <_>
      <rect>
        1 5 6 4</rect></_>
    <_>
      <rect>
        1 8 4 2</rect></_>
    <_>
      <rect>
        1 10 2 1</rect></_>
    <_>
      <rect>
        1 10 3 3</rect></_>
    <_>
      <rect>
        1 12 4 1</rect></_>
    <_>
      <rect>
        1 13 7 1</rect></_>
    <_>
      <rect>
        2 0 3 1</rect></_>
    <_>
      <rect>
        2 2 4 7</rect></_>
    <_>
      <rect>
        2 4 2 2</rect></_>
    <_>
      <rect>
        2 5 3 5</rect></_>
    <_>
      <rect>
        2 16 3 2</rect></_>
    <_>
      <rect>
        2 18 3 2</rect></_>
    <_>
      <rect>
        3 0 2 1</rect></_>
    <_>
      <rect>
        3 5 5 2</rect></_>
    <_>
      <rect>
        4 6 6 1</rect></_>
    <_>
      <rect>
        4 12 2 1</rect></_>
    <_>
      <rect>
        4 13 5 3</rect></_>
    <_>
      <rect>
        4 17 3 2</rect></_>
    <_>
      <rect>
        5 0 2 1</rect></_>
    <_>
      <rect>
        5 1 3 4</rect></_>
    <_>
      <rect>
        5 2 5 3</rect></_>
    <_>
      <rect>
        5 3 5 4</rect></_>
    <_>
      <rect>
        5 4 5 2</rect></_>
    <_>
      <rect>
        5 6 3 2</rect></_>
    <_>
      <rect>
        5 12 3 4</rect></_>
    <_>
      <rect>
        5 18 2 2</rect></_>
    <_>
      <rect>
        5 21 3 1</rect></_>
    <_>
      <rect>
        6 0 4 4</rect></_>
    <_>
      <rect>
        6 2 4 2</rect></_>
    <_>
      <rect>
        6 2 5 3</rect></_>
    <_>
      <rect>
        6 5 2 5</rect></_>
    <_>
      <rect>
        6 5 4 3</rect></_>
    <_>
      <rect>
        6 17 2 1</rect></_>
    <_>
      <rect>
        7 0 4 3</rect></_>
    <_>
      <rect>
        7 1 4 4</rect></_>
    <_>
      <rect>
        7 2 4 3</rect></_>
    <_>
      <rect>
        7 3 3 3</rect></_>
    <_>
      <rect>
        7 13 2 1</rect></_>
    <_>
      <rect>
        7 21 1 1</rect></_>
    <_>
      <rect>
        8 0 3 5</rect></_>
    <_>
      <rect>
        8 2 2 1</rect></_>
    <_>
      <rect>
        8 4 1 1</rect></_>
    <_>
      <rect>
        8 5 3 1</rect></_>
    <_>
      <rect>
        8 12 1 2</rect></_>
    <_>
      <rect>
        9 2 2 2</rect></_>
    <_>
      <rect>
        9 2 5 3</rect></_>
    <_>
      <rect>
        9 3 2 7</rect></_>
    <_>
      <rect>
        9 10 2 2</rect></_>
    <_>
      <rect>
        9 14 4 2</rect></_>
    <_>
      <rect>
        10 2 1 2</rect></_>
    <_>
      <rect>
        10 3 3 7</rect></_>
    <_>
      <rect>
        10 4 1 1</rect></_>
    <_>
      <rect>
        10 4 2 6</rect></_>
    <_>
      <rect>
        10 5 3 2</rect></_>
    <_>
      <rect>
        10 16 2 1</rect></_>
    <_>
      <rect>
        11 0 1 3</rect></_>
    <_>
      <rect>
        11 2 1 2</rect></_>
    <_>
      <rect>
        11 3 1 1</rect></_>
    <_>
      <rect>
        11 6 1 1</rect></_>
    <_>
      <rect>
        11 6 2 1</rect></_>
    <_>
      <rect>
        11 15 1 1</rect></_>
    <_>
      <rect>
        12 2 1 2</rect></_>
    <_>
      <rect>
        12 4 4 5</rect></_>
    <_>
      <rect>
        12 7 2 1</rect></_>
    <_>
      <rect>
        12 16 3 2</rect></_>
    <_>
      <rect>
        12 21 1 1</rect></_>
    <_>
      <rect>
        13 3 1 1</rect></_>
    <_>
      <rect>
        13 3 3 5</rect></_>
    <_>
      <rect>
        13 6 2 2</rect></_>
    <_>
      <rect>
        13 12 1 2</rect></_>
    <_>
      <rect>
        13 21 2 1</rect></_>
    <_>
      <rect>
        14 0 3 1</rect></_>
    <_>
      <rect>
        14 5 2 5</rect></_>
    <_>
      <rect>
        14 9 1 1</rect></_>
    <_>
      <rect>
        14 12 3 2</rect></_>
    <_>
      <rect>
        14 16 3 2</rect></_>
    <_>
      <rect>
        14 18 2 2</rect></_>
    <_>
      <rect>
        14 21 2 1</rect></_>
    <_>
      <rect>
        15 0 2 1</rect></_>
    <_>
      <rect>
        15 0 3 1</rect></_>
    <_>
      <rect>
        15 1 3 2</rect></_>
    <_>
      <rect>
        15 10 3 2</rect></_>
    <_>
      <rect>
        15 10 3 4</rect></_>
    <_>
      <rect>
        15 15 3 3</rect></_>
    <_>
      <rect>
        15 16 2 2</rect></_>
    <_>
      <rect>
        15 16 3 2</rect></_>
    <_>
      <rect>
        16 0 2 1</rect></_>
    <_>
      <rect>
        16 2 2 6</rect></_>
    <_>
      <rect>
        17 0 2 2</rect></_>
    <_>
      <rect>
        17 2 2 3</rect></_>
    <_>
      <rect>
        17 6 2 2</rect></_>
    <_>
      <rect>
        17 17 2 2</rect></_>
    <_>
      <rect>
        18 0 2 2</rect></_>
    <_>
      <rect>
        18 0 2 3</rect></_>
    <_>
      <rect>
        18 1 2 3</rect></_>
    <_>
      <rect>
        18 4 2 2</rect></_>
    <_>
      <rect>
        18 8 2 4</rect></_>
    <_>
      <rect>
        18 11 1 1</rect></_>
    <_>
      <rect>
        21 6 1 2</rect></_></features></cascade>
</opencv_storage>
